digraph Tree {
node [shape=box, style="filled", color="black"] ;
0 [label="petal width (cm) <= 0.8\ngini = 0.667\nsamples = 150\nvalue = [50, 50, 50]\nclass = y[0]", fillcolor="#ffffff"] ;
1 [label="gini = 0.0\nsamples = 50\nvalue = [50, 0, 0]\nclass = y[0]", fillcolor="#e58139"] ;
0 -> 1 [labeldistance=2.5, labelangle=45, headlabel="True"] ;
2 [label="petal width (cm) <= 1.75\ngini = 0.5\nsamples = 100\nvalue = [0, 50, 50]\nclass = y[1]", fillcolor="#ffffff"] ;
0 -> 2 [labeldistance=2.5, labelangle=-45, headlabel="False"] ;
3 [label="petal length (cm) <= 4.95\ngini = 0.168\nsamples = 54\nvalue = [0, 49, 5]\nclass = y[1]", fillcolor="#4de88e"] ;
2 -> 3 ;
4 [label="petal width (cm) <= 1.65\ngini = 0.041\nsamples = 48\nvalue = [0, 47, 1]\nclass = y[1]", fillcolor="#3de684"] ;
3 -> 4 ;
5 [label="gini = 0.0\nsamples = 47\nvalue = [0, 47, 0]\nclass = y[1]", fillcolor="#39e581"] ;
4 -> 5 ;
6 [label="gini = 0.0\nsamples = 1\nvalue = [0, 0, 1]\nclass = y[2]", fillcolor="#8139e5"] ;
4 -> 6 ;
7 [label="petal width (cm) <= 1.55\ngini = 0.444\nsamples = 6\nvalue = [0, 2, 4]\nclass = y[2]", fillcolor="#c09cf2"] ;
3 -> 7 ;
8 [label="gini = 0.0\nsamples = 3\nvalue = [0, 0, 3]\nclass = y[2]", fillcolor="#8139e5"] ;
7 -> 8 ;
9 [label="gini = 0.444\nsamples = 3\nvalue = [0, 2, 1]\nclass = y[1]", fillcolor="#9cf2c0"] ;
7 -> 9 ;
10 [label="petal length (cm) <= 4.85\ngini = 0.043\nsamples = 46\nvalue = [0, 1, 45]\nclass = y[2]", fillcolor="#843de6"] ;
2 -> 10 ;
11 [label="gini = 0.444\nsamples = 3\nvalue = [0, 1, 2]\nclass = y[2]", fillcolor="#c09cf2"] ;
10 -> 11 ;
12 [label="gini = 0.0\nsamples = 43\nvalue = [0, 0, 43]\nclass = y[2]", fillcolor="#8139e5"] ;
10 -> 12 ;
}